Row, Timestamp, Series 1, Series 2, Series 3, Series 4
0   , 0.442, 0      , 0      , 0      , -3     
1   , 0.452, 0      , 0      , 0      , 4      
2   , 0.463, 0      , 0      , 0      , -23    
3   , 0.473, 6      , 0      , 0      , -203   
4   , 0.483, 6      , -1     , 0      , -10    
5   , 0.493, 6      , 0      , 0      , -8     
6   , 0.503, 6      , 0      , 0      , 204    
7   , 0.513, 6      , 0      , 0      , 406    
8   , 0.524, 6      , 0      , -1     , 476    
9   , 0.534, 6      , 1      , -1     , 594    
10  , 0.544, 6      , 3      , -1     , 725    
11  , 0.554, 6      , 5      , -1     , 748    
12  , 0.564, 6      , 7      , -1     , 767    
13  , 0.574, 71     , 9      , -1     , 554    
14  , 0.584, 71     , 9      , 0      , 68     
15  , 0.594, 71     , 7      , 0      , -490   
16  , 0.604, 71     , 3      , 1      , -1021  
17  , 0.614, 71     , 0      , 1      , -1303  
18  , 0.624, 71     , -3     , 2      , -1434  
19  , 0.634, 71     , -7     , 1      , -374   
20  , 0.645, 71     , -9     , 0      , 623    
21  , 0.655, 71     , -7     , -1     , 1435   
22  , 0.665, 71     , -5     , -2     , 2453   
23  , 0.674, 101    , 0      , -4     , 3354   
24  , 0.684, 101    , 7      , -3     , 2022   
25  , 0.694, 101    , 12     , -1     , 654    
26  , 0.705, 101    , 17     , 0      , -704   
27  , 0.715, 101    , 15     , 2      , -2159  
28  , 0.724, 101    , 13     , 4      , -3707  
29  , 0.735, 101    , 6      , 4      , -3678  
30  , 0.746, 101    , 1      , 4      , -2922  
31  , 0.757, 101    , -8     , 3      , -1483  
32  , 0.768, 110    , -16    , 1      , -166   
33  , 0.779, 110    , -17    , -1     , 1431   
34  , 0.790, 110    , -15    , -3     , 3125   
35  , 0.801, 110    , -10    , -5     , 4393   
36  , 0.812, 110    , -5     , -4     , 3554   
37  , 0.822, 110    , 2      , -4     , 2899   
38  , 0.832, 110    , 9      , -3     , 1921   
39  , 0.842, 110    , 16     , -2     , 607    
40  , 0.852, 110    , 20     , 0      , -554   
41  , 0.862, 110    , 19     , 2      , -2170  
42  , 0.872, 113    , 15     , 4      , -3638  
43  , 0.886, 113    , 9      , 6      , -5658  
44  , 0.894, 113    , 3      , 6      , -4886  
45  , 0.904, 113    , -4     , 6      , -4407  
46  , 0.918, 113    , -14    , 6      , -4128  
47  , 0.926, 113    , -17    , 5      , -3469  
48  , 0.936, 113    , -27    , 4      , -2365  
49  , 0.946, 113    , -34    , 3      , -1660  
50  , 0.956, 113    , -35    , 2      , -889   
51  , 0.966, 113    , -34    , 1      , -266   
52  , 0.977, 116    , -29    , 0      , 317    
53  , 0.987, 116    , -24    , 0      , 337    
54  , 0.997, 116    , -17    , 0      , 86     
55  , 1.006, 116    , -11    , 0      , -551   
56  , 1.017, 116    , -5     , 2      , -1979  
57  , 1.027, 116    , -4     , 3      , -3507  
58  , 1.039, 116    , -7     , 5      , -4921  
59  , 1.050, 116    , -12    , 7      , -6588  
60  , 1.062, 116    , -20    , 8      , -6987  
61  , 1.075, 115    , -27    , 8      , -6260  
62  , 1.083, 115    , -33    , 7      , -5182  
63  , 1.095, 115    , -41    , 6      , -3790  
64  , 1.105, 115    , -50    , 4      , -2654  
65  , 1.115, 115    , -51    , 3      , -1787  
66  , 1.125, 115    , -48    , 2      , -683   
67  , 1.136, 115    , -43    , 0      , 442    
68  , 1.146, 115    , -37    , -1     , 1309   
69  , 1.156, 115    , -30    , -3     , 1955   
70  , 1.167, 115    , -22    , -3     , 1937   
71  , 1.178, 115    , -15    , -3     , 1360   
72  , 1.189, 115    , -7     , -2     , 639    
73  , 1.200, 115    , -1     , -2     , 59     
74  , 1.210, 115    , 5      , -1     , -895   
75  , 1.222, 115    , 7      , 1      , -2180  
76  , 1.231, 115    , 4      , 2      , -3430  
77  , 1.242, 115    , 1      , 4      , -4045  
78  , 1.252, 115    , -5     , 4      , -3651  
79  , 1.262, 115    , -11    , 3      , -2597  
80  , 1.272, 115    , -17    , 2      , -1515  
81  , 1.282, 115    , -21    , 1      , -411   
82  , 1.292, 115    , -22    , -1     , 945    
83  , 1.306, 115    , -17    , -4     , 3796   
84  , 1.319, 115    , -11    , -5     , 4081   
85  , 1.327, 115    , -6     , -6     , 4060   
86  , 1.337, 115    , 0      , -6     , 3893   
87  , 1.347, 115    , 7      , -6     , 4180   
88  , 1.357, 115    , 15     , -6     , 3942   
89  , 1.367, 115    , 23     , -5     , 2824   
90  , 1.377, 113    , 31     , -4     , 1948   
91  , 1.387, 113    , 35     , -4     , 1526   
92  , 1.397, 113    , 35     , -2     , 541    
93  , 1.407, 113    , 31     , -1     , -262   
94  , 1.418, 113    , 25     , 0      , -1315  
95  , 1.429, 113    , 18     , 1      , -1702  
96  , 1.440, 113    , 12     , 1      , -871   
97  , 1.449, 113    , 5      , 1      , -409   
98  , 1.460, 113    , -1     , 0      , 547    
99  , 1.468, 113    , -5     , -1     , 1660   
100 , 1.480, 116    , -4     , -3     , 3075   
101 , 1.491, 116    , 1      , -5     , 4421   
102 , 1.502, 116    , 7      , -6     , 5402   
103 , 1.512, 116    , 14     , -6     , 5198   
104 , 1.522, 116    , 18     , -6     , 4395   
105 , 1.532, 116    , 30     , -5     , 3587   
106 , 1.542, 116    , 37     , -5     , 3703   
107 , 1.553, 116    , 43     , -4     , 2613   
108 , 1.564, 116    , 46     , -3     , 1280   
109 , 1.574, 116    , 43     , -1     , 188    
110 , 1.584, 116    , 40     , 0      , -879   
111 , 1.594, 116    , 32     , 2      , -2297  
112 , 1.604, 116    , 25     , 4      , -3533  
113 , 1.614, 116    , 20     , 6      , -4377  
114 , 1.624, 116    , 14     , 6      , -4045  
115 , 1.634, 116    , 6      , 6      , -3741  
116 , 1.644, 116    , 1      , 5      , -2860  
117 , 1.654, 116    , -7     , 5      , -2581  
118 , 1.664, 116    , -17    , 4      , -1799  
119 , 1.675, 115    , -24    , 3      , -1174  
120 , 1.685, 115    , -29    , 2      , -619   
121 , 1.695, 115    , -28    , 1      , 297    
122 , 1.705, 115    , -25    , 0      , 964    
123 , 1.716, 115    , -20    , 0      , 609    
124 , 1.727, 115    , -13    , 0      , 694    
125 , 1.737, 115    , -6     , 0      , -66    
126 , 1.747, 115    , 0      , 1      , -1179  
127 , 1.757, 115    , 2      , 3      , -2492  
128 , 1.767, 115    , -1     , 4      , -3914  
129 , 1.777, 115    , -5     , 7      , -5778  
130 , 1.788, 115    , -12    , 8      , -6724  
131 , 1.799, 115    , -17    , 9      , -6944  
132 , 1.810, 115    , -24    , 9      , -6657  
133 , 1.818, 115    , -31    , 8      , -5944  
134 , 1.830, 115    , -40    , 7      , -4836  
135 , 1.841, 115    , -50    , 7      , -4137  
136 , 1.851, 115    , -56    , 6      , -3611  
137 , 1.861, 115    , -57    , 5      , -2688  
138 , 1.871, 115    , -55    , 3      , -1611  
139 , 1.881, 118    , -49    , 1      , -301   
140 , 1.891, 118    , -43    , -1     , 976    
141 , 1.901, 118    , -37    , -3     , 2322   
142 , 1.911, 118    , -29    , -3     , 2270   
143 , 1.921, 118    , -22    , -4     , 2335   
144 , 1.932, 118    , -16    , -3     , 1615   
145 , 1.942, 118    , -9     , -3     , 1117   
146 , 1.951, 118    , -2     , -3     , 695    
147 , 1.971, 118    , 11     , 0      , -1528  
148 , 1.980, 118    , 13     , 1      , -2641  
149 , 1.991, 118    , 11     , 3      , -3486  
150 , 2.002, 118    , 7      , 4      , -4041  
151 , 2.012, 118    , 1      , 4      , -3924  
152 , 2.022, 118    , -5     , 4      , -3495  
153 , 2.033, 118    , -14    , 3      , -2354  
154 , 2.043, 118    , -21    , 2      , -1420  
155 , 2.053, 118    , -26    , 0      , 187    
156 , 2.063, 118    , -26    , -2     , 1951   
157 , 2.074, 118    , -23    , -4     , 3501   
158 , 2.084, 115    , -19    , -5     , 4287   
159 , 2.093, 115    , -13    , -7     , 5311   
160 , 2.104, 115    , -7     , -8     , 5442   
161 , 2.113, 115    , 0      , -8     , 5277   
162 , 2.128, 115    , 11     , -7     , 4561   
163 , 2.136, 115    , 17     , -7     , 3944   
164 , 2.146, 115    , 25     , -6     , 3079   
165 , 2.156, 115    , 34     , -5     , 2909   
166 , 2.166, 115    , 39     , -5     , 2572   
167 , 2.176, 120    , 41     , -5     , 2486   
168 , 2.186, 120    , 39     , -4     , 2381   
169 , 2.196, 120    , 35     , -3     , 1721   
170 , 2.206, 120    , 29     , -3     , 1331   
171 , 2.218, 120    , 22     , -2     , 1528   
172 , 2.228, 120    , 16     , -3     , 1758   
173 , 2.238, 120    , 12     , -3     , 2304   
174 , 2.250, 120    , 11     , -4     , 3708   
175 , 2.258, 120    , 13     , -6     , 5112   
176 , 2.271, 120    , 21     , -7     , 5761   
177 , 2.278, 113    , 26     , -8     , 6721   
178 , 2.288, 113    , 33     , -8     , 6717   
179 , 2.300, 113    , 41     , -9     , 6819   
180 , 2.308, 113    , 50     , -8     , 6032   
181 , 2.319, 113    , 59     , -7     , 5162   
182 , 2.331, 113    , 66     , -6     , 3740   
183 , 2.342, 113    , 66     , -4     , 2540   
184 , 2.352, 113    , 63     , -2     , 1288   
185 , 2.361, 113    , 57     , 0      , -962   
186 , 2.374, 113    , 48     , 4      , -3622  
187 , 2.384, 116    , 39     , 7      , -5806  
188 , 2.394, 116    , 30     , 10     , -7420  
189 , 2.404, 116    , 23     , 12     , -8970  
190 , 2.413, 116    , 17     , 15     , -10542 
191 , 2.424, 116    , 9      , 17     , -12166 
192 , 2.434, 116    , 4      , 18     , -12462 
193 , 2.444, 116    , -4     , 19     , -12865 
194 , 2.454, 116    , -11    , 20     , -13263 
195 , 2.463, 116    , -19    , 21     , -14094 
196 , 2.474, 116    , -27    , 22     , -14975 
197 , 2.485, 116    , -39    , 23     , -15617 
198 , 2.495, 116    , -49    , 24     , -16685 
199 , 2.505, 116    , -60    , 26     , -18336 
200 , 2.515, 116    , -70    , 28     , -20252 
201 , 2.527, 116    , -83    , 30     , -22322 
202 , 2.543, 116    , -99    , 35     , -26311 
203 , 2.551, 116    , -108   , 38     , -28521 
204 , 2.562, 116    , -119   , 40     , -30739 
205 , 2.572, 116    , -130   , 45     , -34522 
206 , 2.582, 116    , -141   , 49     , -38117 
207 , 2.592, 116    , -154   , 55     , -42876 
208 , 2.602, 116    , -163   , 61     , -47327 
209 , 2.612, 116    , -175   , 66     , -51669 
210 , 2.622, 116    , -186   , 74     , -57775 
211 , 2.633, 116    , -200   , 83     , -64812 
212 , 2.642, 116    , -209   , 91     , -71555 
213 , 2.652, 116    , -221   , 100    , -78143 
214 , 2.662, 116    , -231   , 109    , -84669 
215 , 2.672, 116    , -237   , 117    , -91189 
216 , 2.682, 126    , -246   , 126    , -97741 
217 , 2.692, 126    , -253   , 135    , -104347
218 , 2.702, 126    , -262   , 143    , -111022
219 , 2.712, 126    , -271   , 152    , -117773
220 , 2.722, 126    , -283   , 161    , -124605
221 , 2.732, 126    , -291   , 169    , -131518
222 , 2.744, 126    , -302   , 172    , -132425
223 , 2.754, 126    , -318   , 175    , -134526
224 , 2.764, 126    , -329   , 175    , -134254
225 , 2.774, 126    , -340   , 172    , -132710
226 , 2.784, 125    , -352   , 169    , -130828
227 , 2.794, 125    , -363   , 168    , -131997
228 , 2.805, 125    , -375   , 165    , -130728
229 , 2.814, 125    , -387   , 164    , -131362
230 , 2.824, 125    , -399   , 160    , -129741
231 , 2.834, 125    , -410   , 157    , -128866
232 , 2.845, 125    , -422   , 152    , -126353
233 , 2.855, 125    , -433   , 149    , -126399
234 , 2.865, 125    , -444   , 147    , -127294
235 , 2.874, 125    , -450   , 145    , -126813
236 , 2.884, 128    , -464   , 139    , -122870
237 , 2.896, 128    , -476   , 134    , -120424
238 , 2.905, 128    , -484   , 133    , -122409
239 , 2.915, 128    , -495   , 132    , -123340
240 , 2.925, 128    , -506   , 131    , -124135
241 , 2.935, 128    , -517   , 131    , -125550
242 , 2.947, 128    , -531   , 133    , -127685
243 , 2.955, 128    , -540   , 134    , -129474
244 , 2.965, 128    , -551   , 133    , -129189
245 , 2.976, 128    , -565   , 132    , -128590
246 , 2.985, 133    , -575   , 131    , -128104
247 , 2.995, 133    , -586   , 132    , -129789
248 , 3.006, 133    , -600   , 132    , -130329
249 , 3.019, 133    , -615   , 132    , -130965
250 , 3.027, 133    , -619   , 131    , -130673
251 , 3.038, 133    , -628   , 131    , -130512
252 , 3.050, 133    , -637   , 130    , -130351
253 , 3.060, 133    , -648   , 129    , -130182
254 , 3.070, 133    , -655   , 129    , -130610
255 , 3.081, 131    , -666   , 129    , -130896
256 , 3.092, 131    , -677   , 129    , -130853
257 , 3.102, 131    , -691   , 128    , -130590
258 , 3.112, 131    , -700   , 126    , -129048
259 , 3.122, 131    , -709   , 126    , -128919
260 , 3.132, 131    , -722   , 125    , -128955
261 , 3.142, 131    , -736   , 125    , -129563
262 , 3.153, 131    , -748   , 125    , -129776
263 , 3.163, 131    , -760   , 126    , -130516
264 , 3.176, 131    , -776   , 126    , -131572
265 , 3.186, 135    , -786   , 127    , -132281
266 , 3.196, 135    , -795   , 128    , -132986
267 , 3.207, 135    , -802   , 129    , -134014
268 , 3.217, 135    , -809   , 129    , -133796
269 , 3.227, 135    , -815   , 128    , -132740
270 , 3.237, 135    , -822   , 128    , -132845
271 , 3.247, 135    , -829   , 128    , -133015
272 , 3.258, 135    , -840   , 128    , -132790
273 , 3.270, 135    , -850   , 126    , -131322
274 , 3.280, 135    , -861   , 125    , -130627
275 , 3.291, 131    , -875   , 124    , -130296
276 , 3.301, 131    , -886   , 123    , -129940
277 , 3.312, 131    , -898   , 123    , -130006
278 , 3.322, 131    , -909   , 123    , -130230
279 , 3.332, 131    , -923   , 123    , -130361
280 , 3.342, 131    , -935   , 123    , -131016
281 , 3.352, 131    , -945   , 124    , -131207
282 , 3.365, 131    , -962   , 123    , -130755
283 , 3.373, 131    , -971   , 122    , -130151
284 , 3.384, 128    , -983   , 121    , -128957
285 , 3.394, 128    , -998   , 120    , -127947
286 , 3.404, 128    , -1007  , 118    , -126399
287 , 3.414, 128    , -1022  , 116    , -124870
288 , 3.427, 128    , -1036  , 114    , -123014
289 , 3.435, 128    , -1046  , 111    , -121669
290 , 3.445, 128    , -1058  , 110    , -120425
291 , 3.455, 128    , -1070  , 108    , -119295
292 , 3.465, 128    , -1082  , 106    , -117980
293 , 3.475, 128    , -1094  , 104    , -116402
294 , 3.485, 133    , -1106  , 101    , -114506
295 , 3.495, 133    , -1118  , 99     , -112393
296 , 3.505, 133    , -1129  , 95     , -109792
297 , 3.515, 133    , -1137  , 92     , -107096
298 , 3.525, 133    , -1138  , 88     , -104090
299 , 3.535, 133    , -1134  , 84     , -100891
300 , 3.546, 133    , -1128  , 79     , -97510 
301 , 3.557, 133    , -1118  , 76     , -94819 
302 , 3.566, 133    , -1109  , 72     , -91964 
303 , 3.577, 133    , -1098  , 68     , -89069 
304 , 3.586, 131    , -1088  , 65     , -86794 
305 , 3.597, 131    , -1075  , 62     , -85026 
306 , 3.609, 131    , -1061  , 60     , -83495 
307 , 3.618, 131    , -1052  , 59     , -82847 
308 , 3.631, 131    , -1038  , 57     , -81087 
309 , 3.641, 131    , -1026  , 56     , -80043 
310 , 3.652, 131    , -1014  , 55     , -78924 
311 , 3.663, 131    , -1000  , 54     , -77672 
312 , 3.674, 131    , -990   , 52     , -76189 
313 , 3.684, 131    , -976   , 51     , -74652 
314 , 3.695, 131    , -962   , 50     , -73252 
315 , 3.706, 131    , -950   , 49     , -71718 
316 , 3.717, 131    , -936   , 47     , -70230 
317 , 3.728, 131    , -922   , 46     , -68417 
318 , 3.739, 131    , -910   , 44     , -66651 
319 , 3.750, 131    , -901   , 41     , -63670 
320 , 3.761, 131    , -884   , 38     , -60362 
321 , 3.772, 131    , -872   , 34     , -57010 
322 , 3.786, 133    , -853   , 29     , -52344 
323 , 3.797, 133    , -842   , 26     , -49742 
324 , 3.806, 133    , -832   , 23     , -47132 
325 , 3.818, 133    , -816   , 20     , -44614 
326 , 3.827, 133    , -806   , 17     , -42401 
327 , 3.837, 133    , -795   , 15     , -40621 
328 , 3.847, 133    , -783   , 13     , -39180 
329 , 3.858, 133    , -768   , 12     , -37994 
330 , 3.867, 133    , -759   , 11     , -36837 
331 , 3.878, 133    , -745   , 10     , -35326 
332 , 3.888, 133    , -733   , 9      , -33942 
333 , 3.898, 133    , -721   , 8      , -32651 
334 , 3.910, 133    , -707   , 7      , -31482 
335 , 3.918, 133    , -697   , 7      , -30509 
336 , 3.928, 133    , -685   , 6      , -29634 
337 , 3.939, 133    , -673   , 6      , -28811 
338 , 3.950, 133    , -662   , 6      , -28001 
339 , 3.958, 133    , -650   , 6      , -27131 
340 , 3.970, 133    , -638   , 5      , -26122 
341 , 3.981, 133    , -624   , 5      , -24946 
342 , 3.990, 133    , -612   , 4      , -23748 
343 , 4.001, 133    , -601   , 3      , -22441 
344 , 4.012, 133    , -589   , 3      , -21106 
345 , 4.022, 133    , -577   , 2      , -19824 
346 , 4.034, 133    , -563   , 1      , -18408 
347 , 4.043, 133    , -554   , 0      , -17183 
348 , 4.054, 133    , -539   , -1     , -15992 
349 , 4.067, 133    , -521   , -2     , -14678 
350 , 4.075, 133    , -516   , -3     , -13615 
351 , 4.086, 133    , -502   , -4     , -12578 
352 , 4.097, 133    , -488   , -5     , -11475 
353 , 4.106, 133    , -478   , -5     , -10523 
354 , 4.117, 133    , -464   , -6     , -9540  
355 , 4.127, 133    , -450   , -7     , -8554  
356 , 4.136, 133    , -441   , -7     , -7587  
357 , 4.146, 133    , -431   , -8     , -6673  
358 , 4.157, 133    , -417   , -9     , -5688  
359 , 4.167, 133    , -405   , -9     , -4730  
360 , 4.177, 133    , -391   , -10    , -3798  
361 , 4.186, 130    , -384   , -11    , -2888  
362 , 4.197, 130    , -370   , -11    , -2052  
363 , 4.206, 130    , -361   , -12    , -1281  
364 , 4.216, 130    , -349   , -12    , -467   
365 , 4.226, 130    , -335   , -13    , 311    
366 , 4.236, 130    , -326   , -13    , 1159   
367 , 4.246, 130    , -311   , -14    , 2012   
368 , 4.257, 130    , -300   , -14    , 2868   
369 , 4.266, 130    , -288   , -15    , 3729   
370 , 4.277, 130    , -276   , -16    , 4542   
371 , 4.288, 131    , -262   , -16    , 5350   
372 , 4.297, 131    , -250   , -17    , 6029   
373 , 4.309, 131    , -239   , -17    , 6669   
374 , 4.320, 131    , -225   , -17    , 7109   
375 , 4.332, 131    , -213   , -17    , 7455   
376 , 4.343, 131    , -199   , -17    , 7829   
377 , 4.353, 131    , -187   , -18    , 8233   
378 , 4.363, 131    , -175   , -18    , 8690   
379 , 4.374, 131    , -164   , -18    , 9216   
380 , 4.384, 131    , -152   , -18    , 9776   
381 , 4.394, 131    , -140   , -19    , 10401  
382 , 4.404, 131    , -129   , -19    , 11066  
383 , 4.416, 131    , -112   , -20    , 11914  
384 , 4.427, 131    , -100   , -20    , 12602  
385 , 4.436, 131    , -89    , -21    , 13287  
386 , 4.448, 131    , -75    , -21    , 13972  
387 , 4.457, 131    , -61    , -22    , 14524  
388 , 4.468, 131    , -51    , -22    , 15048  
389 , 4.477, 131    , -40    , -22    , 15544  
390 , 4.488, 135    , -28    , -23    , 16066  
391 , 4.500, 135    , -16    , -23    , 16503  
392 , 4.508, 135    , -7     , -23    , 16933  
393 , 4.518, 135    , 7      , -24    , 17319  
394 , 4.530, 135    , 21     , -24    , 17732  
395 , 4.538, 135    , 31     , -24    , 18113  
